-8 36 60 -154 -11 -31 -42
-19 44 253 -99 118 72 9
-74 -145 211 -266 -60 71 -52
68 -138 299 -102 -145 85 -113
51 -117 217 83 -59 200 25
-23 -114 41 -26 -187 34 8
1 -30 91 80 -82 5 -6
-5 50 61 -175 10 9 -18
-39 40 247 -150 143 144 47
-101 -181 183 -384 -124 88 -52
85 -125 345 -158 -220 75 -135
70 -96 289 106 -66 232 41
-40 -129 42 -31 -216 47 26
-7 -40 87 78 -108 -2 1
20 14 31 -108 22 -15 -5
-1 0 165 -75 142 67 28
-37 -171 107 -229 -21 41 -54
98 -141 204 -78 -101 47 -118
74 -104 143 82 -21 154 1
-2 -95 5 -21 -146 19 -7
17 -21 67 76 -56 14 2
8 12 111 163 106 45 -42
-76 -113 2 213 150 107 18
-125 -147 -167 158 208 102 62
-128 -103 -218 -10 244 125 58
-99 -111 -161 -117 156 151 79
-40 -112 -128 -133 25 79 58
-10 -86 -109 -125 -40 3 14
-52 -32 51 77 29 26 7
-73 -83 -8 140 42 51 59
-80 -45 -126 103 90 5 57
-77 34 -107 -3 154 10 -1
-93 -11 -24 -46 124 71 15
-85 -78 -24 -46 38 42 27
-65 -81 -43 -45 -7 8 18
113 14 -49 -115 -132 -43 40
144 38 -79 -121 -220 -105 18
191 160 -76 -109 -235 -228 -49
186 272 62 -78 -133 -247 -147
139 209 176 5 -30 -136 -123
112 99 136 51 5 -63 -63
134 80 111 70 43 -4 -13
0 8 76 110 40 -10 3
-19 -96 -192 -106 73 62 -16
39 79 -30 -332 -379 -149 -36
14 71 351 563 375 104 8
-5 -104 -277 -223 10 92 67
-17 35 25 -118 -165 -86 -26
-5 -11 29 83 52 3 -6
-2 -9 50 93 33 1 17
-27 -118 -257 -197 -4 25 -34
61 136 40 -328 -450 -202 -58
23 123 505 792 526 153 35
-18 -149 -335 -227 50 124 89
-27 17 -33 -198 -232 -127 -39
8 2 32 77 44 -6 -4
6 2 45 47 -13 -26 4
-4 -50 -109 -28 98 72 -6
25 54 -2 -235 -295 -107 -17
-1 4 249 464 285 44 1
3 -88 -252 -216 -25 49 34
-14 59 64 -52 -101 -52 -12
1 -10 -3 50 44 4 3
4 -28 -9 14 9 0 -7
5 -5 5 30 40 32 20
37 34 18 51 55 14 2
48 47 34 36 6 -5 -19
49 38 29 -12 -42 -19 -39
47 31 28 -5 -26 -23 -66
25 16 5 -11 -46 -69 -104
83 -35 -70 -54 -35 -19 4
14 -74 -96 -61 -9 20 51
-2 -64 -86 -23 32 37 55
-13 -57 -64 -14 8 37 47
-15 -47 -40 -35 -17 33 31
-9 -30 -4 1 8 30 -1
7 4 22 40 25 8 -20
-174 -209 -183 -111 -40 6 31
-206 -205 -150 -39 71 121 125
-201 -167 -100 54 176 190 166
-188 -128 -36 105 173 197 166
-163 -96 9 88 126 160 124
-137 -61 47 108 125 125 59
-112 -33 60 135 128 92 34
53 55 40 31 24 -7 -93
133 104 66 19 -34 -70 -128
175 143 80 -1 -82 -118 -138
182 129 66 -10 -84 -119 -144
155 112 64 -23 -80 -100 -148
84 53 38 -12 -58 -82 -122
25 23 22 -1 -31 -40 -63
110 104 79 31 -9 -88 -187
199 155 115 38 -63 -155 -237
241 195 134 24 -102 -201 -252
254 198 128 33 -95 -202 -264
217 173 119 5 -107 -190 -259
152 109 73 -10 -91 -153 -212
85 69 45 1 -46 -78 -112
49 25 11 3 -2 -27 -88
124 82 44 7 -31 -84 -132
137 100 60 7 -59 -109 -144
149 99 60 19 -47 -104 -144
137 91 61 8 -48 -103 -154
94 52 30 -10 -41 -83 -113
56 31 17 -2 -17 -21 -26
-12 -57 -113 -47 41 9 -34
14 21 -72 -248 -237 -94 -34
64 186 414 440 180 10 4
-23 -102 -150 39 246 186 75
-13 -32 -171 -326 -248 -64 -6
-26 17 124 140 14 -36 -13
-11 -21 -38 1 27 0 -17
5 -47 -134 -79 30 28 -6
39 79 -9 -222 -239 -81 -5
60 228 535 593 279 55 32
-75 -183 -239 -10 241 201 81
-48 -94 -282 -484 -399 -146 -40
-21 35 153 143 -20 -72 -26
10 10 -1 34 58 24 0
15 -15 -45 25 99 52 -3
1 -4 -66 -190 -164 -26 9
16 80 274 304 71 -37 -7
-26 -109 -170 -40 108 79 13
-4 12 -89 -251 -227 -68 -22
-17 30 141 161 48 -9 2
17 -1 -21 5 39 20 2
-22 -44 -51 -46 7 57 87
-41 -74 -80 -68 -12 43 63
-23 -52 -35 -12 15 57 60
-5 -3 6 17 46 62 55
-1 -7 13 1 26 42 37
-6 -12 22 28 25 35 47
31 31 48 62 53 44 70
-21 -61 -83 -92 -40 31 84
-50 -91 -108 -114 -62 15 65
-28 -60 -62 -54 -23 35 65
-8 -8 -11 -14 21 53 66
-1 -8 10 -7 19 46 55
-11 -14 22 29 24 36 64
16 18 36 54 49 44 79
75 0 -46 -97 -91 -43 6
39 -36 -78 -122 -120 -73 -22
33 -36 -66 -97 -104 -65 -28
26 -20 -58 -90 -80 -54 -36
28 -23 -40 -83 -74 -52 -47
19 -25 -27 -43 -59 -54 -42
32 -3 -12 -15 -29 -45 -28
27 -40 -126 -161 -137 -58 11
2 -5 -34 -41 11 49 36
-54 -15 117 246 196 60 -19
-53 32 179 281 175 33 -39
14 55 48 -5 8 28 -7
54 14 -105 -199 -137 -36 14
-10 -29 -85 -111 -109 -56 -4
32 -56 -169 -218 -168 -62 24
16 8 -27 -44 16 58 44
-44 12 182 327 247 70 -29
-38 61 241 358 215 28 -57
23 66 52 -12 -9 18 -6
49 6 -140 -259 -191 -54 14
-18 -48 -126 -162 -150 -74 -11
24 -31 -100 -135 -104 -30 38
13 13 -11 -30 7 36 35
-40 -27 83 196 129 8 -40
-46 -9 114 218 121 -6 -53
-2 22 22 -1 11 29 -7
43 21 -71 -136 -88 -12 13
-3 -11 -55 -69 -68 -37 -3
-13 -54 81 96 -53 -27 -14
19 -116 39 250 -213 60 -25
63 -144 -102 472 -409 110 -40
62 -103 -178 495 -342 65 2
20 -70 -104 278 -141 -9 13
7 -53 -9 100 -28 -19 -6
1 -38 14 59 -5 -14 0
1 -61 73 77 -72 -17 28
19 -152 37 269 -279 59 25
77 -203 -100 571 -496 92 23
91 -151 -183 615 -405 35 48
51 -91 -108 333 -180 -42 39
23 -62 -9 102 -48 -30 17
10 -41 18 47 -24 -20 11
6 -21 16 17 -33 7 -2
35 -55 -26 141 -165 99 -17
65 -59 -136 345 -329 158 -34
54 -17 -192 359 -285 111 -15
26 0 -123 155 -121 35 3
15 -16 -23 41 -24 17 2
7 -24 -1 31 -10 6 3
-19 16 -9 -61 10 84 76
-15 11 -48 -221 -224 -81 54
75 97 105 -108 -287 -203 -24
57 152 237 206 -69 -168 -83
-65 94 161 256 173 25 -14
-125 -69 35 119 109 33 11
-59 -105 -67 7 14 -31 -33
-5 22 -24 -66 38 156 167
-20 -10 -100 -307 -306 -94 117
82 106 95 -190 -414 -291 -30
87 200 291 217 -134 -248 -116
-42 131 220 300 174 2 -21
-127 -48 70 142 114 43 35
-64 -102 -59 16 9 -31 -8
-9 27 29 20 78 119 107
-55 -30 -39 -141 -115 -4 111
-1 -1 35 -88 -190 -101 62
14 36 80 98 -76 -112 -15
-40 41 33 90 52 -4 13
-49 -15 15 19 2 -11 33
31 -9 -5 6 -22 -46 14
61 16 1 -14 19 45 83
26 -34 -109 -131 -98 -2 47
41 -59 -146 -152 -132 -29 48
34 -58 -134 -125 -109 -32 31
22 11 -59 -78 -47 -9 20
26 27 21 -2 -2 -15 10
59 9 18 22 19 -5 15
22 -29 -38 -56 -41 -29 7
-17 -74 -125 -142 -134 -60 -18
3 -96 -150 -149 -150 -67 0
16 -83 -148 -137 -128 -55 3
15 -9 -83 -97 -61 -18 9
19 18 7 -13 -2 -11 18
55 8 19 25 36 10 31
9 10 57 59 47 17 14
-13 5 31 33 0 11 1
9 -8 3 15 -18 -4 6
7 -31 -51 -37 -51 -28 -9
-5 -14 -66 -72 -56 -31 -15
-22 -26 -30 -46 -47 -46 -15
0 -43 -32 -28 -25 -42 -21
2 24 32 39 57 44 27
6 28 43 53 67 52 46
-18 17 45 66 82 76 57
-7 17 41 58 74 86 77
-14 15 46 63 80 81 71
-25 6 39 52 66 72 54
5 20 36 44 44 34 11
54 14 -37 -63 -31 -15 -25
-2 -33 -67 -86 -52 -22 -7
-54 -62 -73 -86 -61 -18 -5
-40 -47 -61 -84 -66 -7 20
-40 -36 -27 -47 -35 -3 20
-52 -44 -22 -34 -34 -19 -4
-2 -18 -21 -36 -43 -46 -34
51 41 12 -5 37 58 40
9 0 -22 -39 2 46 54
-36 -32 -38 -52 -20 36 43
-20 -23 -38 -67 -44 21 38
-18 -11 -10 -40 -29 2 12
-35 -22 -7 -39 -52 -51 -52
0 -20 -32 -68 -98 -120 -115
11 -69 -92 -71 -39 -22 -11
-26 -92 -106 -106 -99 -66 -46
-35 -85 -107 -118 -128 -100 -70
-19 -55 -76 -73 -84 -66 -44
-1 -36 -51 -49 -41 -20 -8
23 -41 -45 -26 3 14 25
39 -21 -25 -18 11 2 16
-62 -20 47 129 188 196 183
-50 -2 65 123 154 164 157
-42 6 60 98 111 116 112
-32 13 58 103 107 102 84
-33 0 37 66 78 77 49
-15 -27 -2 25 45 31 2
-9 -38 -32 -27 -15 -50 -75
17 8 33 74 67 20 -28
-5 -4 33 48 18 -18 -63
-14 -8 14 20 -13 -44 -77
-20 -7 11 29 6 -19 -53
-24 -22 -11 1 2 -11 -48
-14 -45 -35 -19 -9 -21 -45
3 -43 -42 -47 -38 -55 -62
71 124 115 38 -64 -125 -107
58 124 104 20 -71 -122 -102
22 46 27 -10 -13 -19 -36
-40 -78 -55 -7 49 90 58
-70 -128 -97 -5 83 123 104
-34 -84 -75 -20 37 69 64
21 -6 -23 -30 -30 -12 4
45 99 97 30 -60 -114 -85
42 109 94 18 -64 -114 -82
12 41 28 -3 -5 -15 -23
-56 -81 -48 4 55 89 66
-89 -130 -89 6 86 120 105
-55 -86 -68 -13 40 70 66
8 -1 -9 -17 -22 -6 7
47 77 71 15 -63 -108 -76
50 92 62 -7 -75 -112 -75
36 42 10 -31 -30 -31 -30
-18 -57 -41 -14 21 58 41
-53 -101 -64 7 65 90 72
-32 -63 -39 9 45 57 40
22 18 22 17 7 8 9
2 13 58 90 50 -46 -115
-14 -31 28 87 128 94 -17
-35 -46 24 81 103 116 60
-61 -173 -87 26 110 106 89
43 -210 -264 -152 -6 60 76
145 14 -156 -183 -110 -31 12
93 117 53 -20 -32 -24 -12
9 16 73 129 101 -8 -84
-22 -40 27 114 180 149 20
-59 -83 3 93 138 162 97
-75 -228 -148 4 114 128 112
59 -246 -348 -225 -46 48 75
187 30 -202 -262 -172 -61 -3
133 162 71 -47 -69 -37 -7
4 -15 4 50 51 -8 -51
-21 -49 -27 19 83 81 3
-33 -41 0 15 31 57 25
-31 -108 -52 14 51 38 23
62 -130 -185 -111 -10 25 31
129 45 -99 -135 -78 -17 12
93 131 80 3 -2 19 39
22 -49 -96 -90 -67 -74 -69
25 -23 -71 -77 -65 -82 -73
29 35 -25 -114 -120 -86 -44
19 69 58 -73 -153 -112 -35
-19 25 61 22 -60 -56 4
-25 -20 -2 36 26 34 62
-35 -39 -29 21 66 83 90
-53 -16 16 69 118 105 76
-33 31 61 97 125 94 59
-25 80 106 63 71 79 60
-32 102 160 77 16 25 32
-68 41 122 114 45 16 14
-65 -13 18 55 43 23 -3
-88 -65 -63 -34 -5 -15 -52
43 -2 -31 -32 -32 -62 -90
41 37 11 -10 -39 -85 -114
34 75 55 -37 -82 -97 -106
23 92 105 -10 -105 -106 -94
-16 37 75 44 -30 -56 -53
-5 3 6 32 22 4 -8
-10 -19 -25 6 35 35 12
74 27 -60 -158 -174 -144 -106
35 -12 -82 -134 -130 -90 -61
16 -27 -84 -109 -93 -72 -40
14 -25 -67 -98 -83 -56 -27
15 -3 -50 -90 -94 -38 44
38 19 -2 -25 -18 46 128
41 38 46 75 117 152 168
-138 -35 44 74 130 168 172
-89 9 89 139 180 205 190
-54 46 113 156 186 179 142
-43 46 104 119 129 104 44
-58 34 53 40 13 -4 -31
-51 -5 12 -17 -52 -57 -69
-74 -43 -28 -40 -58 -87 -137
108 112 107 62 36 1 -35
83 81 66 34 1 -37 -69
73 56 10 -29 -51 -81 -101
52 27 -33 -83 -103 -118 -142
28 4 -63 -113 -141 -134 -111
42 -3 -43 -72 -86 -61 -19
46 8 -5 -6 20 36 31
-81 -89 -111 -122 -119 -88 -46
-79 -68 -57 -56 -53 -41 6
-70 -47 -41 -35 -24 -7 38
-30 -17 -10 2 9 23 45
17 30 16 5 -1 26 47
38 71 72 65 46 42 53
15 81 153 181 148 111 70
16 -10 -49 -63 -69 -47 -35
32 22 26 27 25 24 30
37 34 41 46 51 46 38
30 18 22 24 19 13 -11
21 0 -35 -65 -83 -57 -56
14 -1 -30 -59 -75 -68 -62
-11 9 54 74 49 18 -19
116 119 98 89 93 108 72
113 136 161 172 189 179 129
80 110 135 163 182 158 104
7 13 37 53 59 36 -13
-64 -79 -109 -132 -142 -118 -122
-116 -141 -178 -200 -205 -187 -179
-168 -176 -138 -112 -126 -133 -158
69 66 39 -30 -68 -62 -13
77 72 -25 -140 -151 -151 -108
40 0 -124 -188 -167 -165 -109
-1 -59 -131 -144 -146 -152 -52
-13 -62 -95 -103 -127 -92 34
-18 -44 -71 -81 -71 -10 73
-20 -25 -26 -33 -9 37 74
19 55 78 46 29 35 57
60 98 51 -27 -20 -31 -26
51 55 -28 -58 -28 -48 -32
34 13 -29 -24 -28 -60 1
29 2 -16 -15 -49 -46 44
23 9 -13 -27 -37 -5 40
19 20 14 -7 0 20 23
-57 -17 38 65 79 84 75
-26 37 57 58 101 84 41
-20 35 38 80 136 103 56
-20 20 54 115 131 83 71
-19 5 46 88 70 46 67
-32 -9 10 32 31 28 22
-40 -11 8 11 20 17 -8
-25 -37 -13 -26 -66 -65 -34
30 35 -30 -96 -25 72 81
19 37 190 394 363 143 2
-20 -67 -240 -503 -545 -287 -75
-15 41 133 215 251 173 35
19 23 6 17 19 12 4
-25 -19 -23 -33 -37 -15 1
7 -37 -23 -31 -78 -58 -16
65 71 22 -9 71 141 109
12 45 240 484 425 150 -19
-59 -135 -358 -666 -725 -413 -131
-39 13 100 191 243 159 22
35 35 28 55 63 34 17
-6 -2 3 -10 -28 -13 1
3 -24 -6 1 -40 -58 -41
28 8 -68 -135 -71 15 41
10 10 131 337 323 119 6
-9 -35 -154 -330 -367 -174 -29
-2 30 123 223 238 142 35
28 -18 -62 -69 -63 -59 -13
-5 -9 6 0 -13 -3 0
-11 -22 -49 -43 -40 -56 -55
-35 -39 -56 -17 25 -26 -62
-50 -50 -67 -31 26 -29 -78
-40 -48 -72 -72 -55 -74 -86
-25 -37 -57 -75 -83 -78 -67
-19 -36 -54 -65 -76 -73 -50
-32 -42 -58 -63 -72 -73 -51
15 21 7 16 15 -1 -3
4 19 11 43 81 37 4
0 20 13 45 98 51 5
9 19 15 25 42 27 8
19 25 24 20 18 25 25
22 23 22 25 21 24 32
9 20 18 23 18 15 20
33 42 30 42 44 23 14
15 32 23 53 91 48 15
-1 24 18 43 89 49 7
1 19 15 24 39 31 14
4 21 27 30 34 43 39
5 21 32 43 50 54 52
-6 21 37 52 55 50 43
41 -63 -124 -145 -157 -182 -202
85 -54 -135 -168 -162 -186 -189
117 11 -70 -145 -174 -174 -152
134 33 -21 -33 -79 -111 -81
132 120 27 -1 39 29 15
69 134 189 144 98 85 71
85 82 133 198 175 119 94
-38 52 131 184 233 248 237
-16 48 124 158 220 220 211
-61 21 120 119 138 146 137
-113 -93 8 91 92 55 44
-116 -81 -105 -89 -14 -13 -38
-164 -110 -67 -121 -158 -146 -143
-139 -173 -172 -151 -193 -229 -239
-11 6 -2 -43 -88 -95 -53
-11 10 23 -27 -69 -73 -29
-43 9 70 30 -18 -29 16
-49 -60 26 94 67 30 65
-29 -40 -68 -40 39 65 89
-32 -19 12 -25 -27 33 93
66 11 10 43 36 42 93
-196 -222 -146 -10 89 65 13
-203 -176 -56 107 233 131 36
-165 -85 56 350 402 128 3
-73 16 218 460 273 -6 -103
-13 66 193 207 -14 -141 -198
5 43 73 35 -77 -156 -175
-9 13 28 -23 -91 -126 -129
183 138 101 -11 -63 -66 -37
139 129 38 -140 -140 -119 -44
90 42 -156 -209 -166 -163 -18
22 -71 -167 -143 -206 -94 75
0 -58 -87 -130 -134 86 146
5 -25 -42 -33 43 137 148
10 -1 14 16 62 116 148
31 67 109 25 -23 -13 18
74 156 120 -60 -73 -35 9
95 128 -68 -176 -133 -75 25
55 6 -137 -166 -166 1 84
21 -31 -96 -129 -48 155 99
20 -24 -48 -20 77 121 42
7 -26 -25 -25 8 19 -11
5 39 -3 -70 54 11 -33
-1 41 97 -235 -123 106 3
-3 -36 368 127 -364 -71 47
-2 -240 35 509 44 -149 3
34 -81 -324 58 186 3 11
1 63 -76 -72 39 -1 4
26 2 -49 -16 40 16 0
-17 52 -5 -125 25 36 15
-8 76 151 -289 -223 76 6
-29 -10 531 237 -444 -167 -1
-71 -302 112 714 114 -194 -43
0 -143 -368 123 263 19 6
4 43 -119 -82 59 2 6
20 -8 -58 -27 37 -2 -9
-8 17 -16 -44 63 20 -7
-21 -4 42 -203 -69 119 2
-5 -46 284 84 -306 -28 36
5 -173 28 408 -6 -134 -6
40 7 -220 22 91 -24 13
-10 69 -12 -37 10 -17 3
4 -15 -24 9 39 4 5
20 13 -76 -3 72 -20 -12
26 -66 -207 134 98 -80 26
24 -161 -14 419 -33 -84 45
16 -81 260 236 -304 -34 -2
-7 -9 177 -108 -235 50 6
-18 13 74 -100 -48 24 5
-3 13 10 -69 -31 7 16
5 -41 -156 -25 99 -13 -18
-36 -172 -283 202 181 -78 34
-49 -251 20 608 56 -104 30
-25 -93 377 378 -324 -93 -33
-9 13 263 -84 -305 11 -6
-15 32 107 -119 -91 16 13
3 28 34 -76 -57 6 22
14 20 -73 -35 44 -6 -16
-1 -49 -199 77 73 -54 32
5 -146 -54 346 -4 -32 41
13 -84 182 209 -210 24 -14
-4 -26 125 -76 -138 90 -24
-19 4 67 -60 -13 21 -31
3 27 33 -34 -30 -4 -9
-124 -188 -211 -221 -225 -220 -150
-69 -150 -201 -247 -257 -223 -122
-16 -58 -106 -144 -152 -114 -36
10 -1 -3 -5 4 14 53
54 65 96 127 123 108 88
85 159 207 233 213 170 148
111 197 239 269 246 214 168
-70 -105 -101 -96 -99 -108 -75
-28 -77 -107 -134 -141 -132 -77
14 -9 -46 -77 -86 -64 -39
20 19 9 -4 -2 -1 1
45 36 39 48 45 33 1
69 91 93 96 80 51 40
92 118 112 106 76 63 45
41 76 115 146 142 94 55
52 65 88 94 91 60 44
35 56 63 62 62 58 36
-32 -12 -8 -7 6 16 11
-58 -69 -82 -73 -60 -29 -44
-80 -68 -88 -101 -85 -54 -31
-81 -62 -86 -103 -95 -54 -34
-8 0 -22 -8 17 35 -2
-13 -46 2 67 45 4 -21
-43 -133 46 201 96 -91 -49
-91 -193 76 279 127 -167 -85
-107 -156 54 226 115 -133 -100
-56 -67 26 127 91 -46 -76
-11 -3 10 53 45 7 -21
-2 18 1 -4 -9 -3 -27
-18 -28 39 92 23 -53 -56
-45 -113 109 263 87 -165 -95
-98 -170 159 373 141 -244 -143
-118 -140 129 311 137 -196 -167
-64 -53 70 176 104 -82 -125
-18 1 23 64 33 -17 -50
9 32 -5 -28 -12 18 3
3 -3 13 21 -4 -22 -15
-1 -66 56 132 39 -107 -34
-45 -114 94 215 65 -177 -66
-60 -82 71 167 60 -140 -77
-22 -27 32 82 42 -56 -59
0 17 8 26 7 -10 -16
10 -21 -98 -25 69 36 -56
65 0 -198 -39 147 73 -86
117 -3 -292 -54 245 135 -103
122 -30 -311 -70 259 144 -124
76 -53 -252 -48 207 120 -116
36 -35 -123 8 144 86 -63
-4 -29 -35 41 104 65 -15
45 -17 -141 -69 62 70 10
113 -1 -287 -107 155 125 -17
182 -3 -412 -143 265 204 -31
203 -22 -430 -161 285 215 -58
139 -51 -346 -122 218 168 -60
65 -46 -178 -46 129 104 -30
0 -48 -66 -5 70 56 -3
40 17 -60 -33 6 18 14
73 42 -144 -61 46 34 -21
116 54 -215 -86 116 80 -32
132 44 -233 -105 127 93 -46
96 4 -190 -71 92 62 -45
46 -12 -95 -27 50 34 -20
9 -26 -36 -2 33 24 12
-30 58 121 198 247 225 136
-37 49 115 247 312 296 156
-38 26 54 125 221 229 129
-64 -17 -14 -21 33 67 58
-88 -85 -92 -88 -77 -62 -45
-107 -99 -143 -175 -166 -137 -126
-129 -133 -178 -208 -209 -204 -223
91 13 -50 -86 -113 -110 -106
38 -51 -143 -179 -222 -210 -186
57 -24 -133 -242 -261 -221 -159
77 44 -5 -102 -127 -96 -48
81 51 72 83 73 60 56
104 89 78 85 119 158 161
149 118 105 127 175 220 235
-60 -47 -29 -2 23 50 55
-49 -47 -84 -66 -64 -52 -52
-16 -1 -64 -116 -104 -80 -63
15 53 49 -11 -23 -26 -31
29 58 97 112 100 50 -12
10 50 66 66 72 66 7
0 19 23 32 33 23 -25
16 4 33 57 -61 -38 -52
-9 -11 25 287 46 -118 -12
-19 -61 -333 112 449 2 -28
3 144 -245 -512 161 197 -2
-41 103 264 -255 -219 74 20
19 -74 103 84 -85 7 -7
13 13 -10 21 -33 -9 -2
14 -31 2 70 -17 11 -12
3 -62 -69 287 114 -63 27
22 -99 -499 -2 491 55 17
83 223 -316 -726 41 184 12
15 227 374 -327 -358 5 -4
19 -26 209 144 -107 -20 -26
-25 -3 12 61 -7 7 18
1 -21 -43 -25 -18 59 26
6 7 -21 137 -28 -79 44
2 16 -232 55 278 -78 -2
-12 177 -86 -386 80 79 -30
-64 71 312 -114 -165 38 -3
10 -87 81 118 -36 10 -14
-10 -3 -39 5 -17 4 7
63 14 -38 -56 -26 36 52
33 -13 -74 -115 -82 50 93
7 -44 -106 -161 -158 -39 35
12 -37 -86 -148 -167 -98 -23
49 11 -64 -112 -122 -71 -14
63 41 -12 -55 -70 -22 27
38 45 19 -16 -28 8 58
-5 0 -8 6 41 81 56
-27 -20 -28 -26 29 148 141
-52 -46 -48 -56 -26 85 111
-51 -50 -39 -56 -52 10 45
-22 -19 -42 -58 -48 -2 28
-7 1 -17 -33 -40 3 32
-23 0 -2 -20 -31 -1 31
-37 22 46 63 66 62 7
-64 15 61 86 106 158 100
-86 0 63 89 101 145 106
-96 -15 64 93 94 101 75
-94 -21 19 57 71 81 64
-112 -46 -8 21 29 52 48
-146 -78 -39 -16 -6 15 27
-144 -69 -1 30 63 97 113
-112 -56 -9 9 24 60 105
-95 -49 -20 -19 -4 39 91
-102 -42 -14 -20 3 66 115
-112 -45 -27 -12 37 90 131
-128 -62 -43 -12 35 85 131
-129 -93 -46 -7 39 90 140
-219 -127 -32 37 95 151 196
-204 -113 -22 30 65 119 188
-197 -112 -33 6 45 97 176
-208 -116 -42 -6 44 118 188
-198 -106 -49 1 66 123 189
-195 -112 -65 -6 49 104 174
-182 -138 -78 -24 39 107 182
-110 -67 -19 7 41 91 140
-87 -46 -9 3 2 44 106
-71 -32 -13 -20 -17 9 72
-84 -31 -15 -31 -29 25 92
-87 -29 -20 -19 3 37 100
-92 -38 -31 -13 2 37 105
-81 -64 -29 -8 16 70 154
-27 -4 58 78 11 -29 -24
-94 -22 132 105 -69 -87 19
-158 -40 240 163 -180 -150 91
-180 -68 268 212 -220 -194 148
-143 -34 210 185 -138 -181 107
-77 5 122 97 -48 -114 28
-8 16 59 32 -8 -55 -28
-6 28 82 57 -38 -77 -14
-72 30 188 88 -150 -150 51
-122 45 342 162 -306 -244 138
-141 31 393 229 -364 -305 202
-112 38 301 190 -261 -284 139
-58 47 155 81 -114 -171 32
-5 34 64 12 -36 -79 -29
25 15 21 21 -9 -23 15
-13 16 68 21 -85 -62 76
-40 19 148 48 -197 -110 154
-63 3 178 88 -244 -158 196
-42 14 120 58 -174 -153 144
-17 23 47 3 -80 -103 55
9 15 20 -19 -24 -44 4
22 -15 -39 -25 -5 -5 31
8 -20 -44 -44 -32 -48 -36
10 4 -17 -82 -81 -69 -65
23 40 59 -39 -123 -101 -65
40 37 64 51 -57 -79 -40
41 26 16 21 3 -6 -8
41 23 8 17 7 10 5
55 1 -60 -89 -100 -124 -105
43 4 -52 -94 -112 -145 -150
53 42 3 -99 -136 -145 -149
62 83 103 -20 -147 -148 -118
59 60 100 86 -44 -83 -55
50 32 31 41 29 21 14
57 33 16 28 33 50 50
7 32 52 94 103 68 33
-12 36 76 115 134 92 31
-27 51 106 107 123 112 47
-48 52 146 125 75 78 47
-72 -14 70 129 75 60 42
-106 -74 -43 7 43 57 24
-127 -110 -105 -70 -32 6 -12
41 45 37 27 38 46 44
22 29 37 39 51 48 41
20 28 30 30 47 44 21
7 19 -1 -21 -19 -29 -45
-16 -14 -52 -81 -99 -105 -81
7 7 -26 -46 -44 -25 -11
14 6 0 8 14 4 -13
107 62 4 -49 -68 -70 -70
62 19 -24 -60 -64 -63 -65
46 -2 -47 -75 -61 -54 -65
27 -12 -69 -108 -101 -98 -97
17 -23 -99 -137 -142 -130 -75
57 28 -28 -50 -27 20 59
69 43 36 60 93 112 113
44 69 72 77 88 88 73
28 64 85 100 119 105 77
25 52 70 91 114 101 53
5 32 26 25 37 21 -18
-33 -19 -55 -76 -84 -87 -64
-28 -16 -51 -69 -53 -27 -9
-52 -45 -46 -27 -4 5 -6
-27 -55 -42 -24 11 25 47
-37 -27 2 20 37 28 46
-40 -13 24 50 33 20 38
-31 -15 8 18 26 13 18
-12 -25 -33 -20 -2 -22 -8
-2 -29 -39 -24 -35 -42 -11
-8 -15 -12 -21 -35 -21 10
27 -47 -88 -119 -114 -105 -73
-6 -39 -56 -95 -120 -145 -100
-24 -41 -43 -67 -134 -164 -110
-20 -47 -61 -95 -126 -143 -104
16 -41 -74 -91 -101 -124 -88
52 -6 -41 -48 -76 -83 -33
59 35 18 -5 -27 -6 42
-10 7 42 72 101 106 109
-24 39 111 136 130 100 110
-28 55 140 172 119 85 108
-26 46 110 121 108 88 96
-6 22 52 68 78 53 66
-2 10 25 45 34 25 49
-27 0 15 19 13 32 53
-120 -24 26 76 154 172 128
-93 -20 28 83 146 182 145
-104 -35 26 75 114 142 136
-121 -79 -28 37 80 93 81
-91 -68 -63 -14 24 33 25
-67 -50 -52 -46 -31 -48 -58
-94 -82 -84 -71 -85 -121 -136
196 98 -33 -200 -287 -278 -221
163 71 -30 -197 -335 -324 -236
129 52 8 -115 -249 -244 -144
88 18 3 -25 -93 -107 -55
106 36 10 18 -3 -11 16
163 105 91 83 66 48 69
230 183 175 191 180 155 171
-63 15 59 57 74 88 75
-45 28 79 58 14 23 42
-57 16 93 99 34 29 60
-91 -38 42 95 78 59 57
-100 -62 -19 38 41 31 11
-85 -60 -34 -19 -19 -31 -60
-100 -78 -63 -44 -47 -72 -101
-2 8 10 11 10 8 -16
13 30 50 47 24 18 2
31 65 124 127 62 36 20
37 62 109 117 68 42 17
40 49 66 66 49 37 13
26 40 43 35 22 12 -5
6 13 12 4 -3 -16 -12
-16 -14 -15 -9 -10 -11 -31
-2 10 32 29 0 -3 -10
13 42 111 117 40 9 5
10 23 75 84 28 2 -8
6 2 13 13 -1 -1 -10
-1 7 8 1 -5 -5 -15
-3 10 12 5 3 -4 0
-9 19 43 56 54 51 38
-3 42 95 100 62 53 57
-8 55 158 172 74 36 50
-30 4 78 92 24 -6 10
-39 -37 -12 -12 -25 -12 1
-31 -15 -6 -4 -4 3 4
-7 9 17 21 27 24 26
7 -8 32 33 2 -25 -28
34 -66 27 91 69 -40 -93
74 -141 -39 173 188 -44 -187
84 -152 -86 163 230 -39 -240
61 -84 -67 93 161 -23 -177
30 -30 -13 48 66 -20 -77
11 -5 10 18 8 -9 -11
-63 -80 -1 50 58 32 17
-57 -179 -33 119 151 32 -54
-21 -286 -119 233 326 58 -147
1 -301 -188 228 396 87 -190
-8 -213 -165 122 296 96 -127
-23 -118 -85 48 131 59 -35
-39 -58 -31 16 37 27 10
-5 -34 -7 7 10 13 8
-10 -104 -32 35 69 16 -44
32 -177 -89 113 185 36 -96
50 -181 -123 120 226 48 -133
44 -112 -108 47 153 39 -91
22 -57 -47 13 55 28 -13
-3 -23 -6 13 16 28 39
41 -3 -35 -25 -2 8 -21
-63 -168 -215 -162 -104 -58 -37
-70 -114 -84 3 34 45 50
-19 26 101 158 150 154 104
14 81 144 171 191 184 46
8 31 71 97 84 3 -113
-61 -62 -60 -84 -132 -168 -156
31 -29 -80 -83 -61 -23 -22
-121 -251 -312 -251 -172 -92 -45
-144 -203 -168 -52 16 46 59
-51 -14 86 185 207 201 140
36 106 189 253 278 244 78
45 77 134 176 155 44 -106
-18 -15 -6 -30 -87 -148 -153
56 27 10 18 24 33 0
-41 -117 -149 -112 -83 -49 -40
-51 -89 -66 -5 8 6 8
-15 -5 46 88 74 71 45
16 32 73 105 127 122 19
22 13 39 74 84 19 -76
-27 -36 -35 -42 -59 -93 -90
-24 -23 -26 -28 -23 -8 6
-20 -21 -32 -33 -27 -11 9
-13 -19 -23 -19 -20 -14 5
-12 -13 -11 5 10 5 15
-12 -3 6 24 26 18 24
-12 -6 -1 15 16 18 20
-14 -12 -3 11 9 12 10
25 28 28 28 24 25 20
32 30 29 34 32 33 31
38 30 36 52 45 31 30
33 33 47 73 71 46 34
26 37 52 77 70 42 28
22 23 23 37 32 21 15
20 16 20 27 20 22 19
-6 5 16 18 8 1 -2
-5 -4 2 8 -2 -11 -10
-7 -17 -6 13 0 -24 -25
-19 -20 -3 29 22 -18 -29
-18 -13 0 22 10 -28 -41
-12 -16 -26 -17 -29 -47 -49
-4 -13 -17 -17 -26 -29 -35
-13 -25 -4 86 123 -3 -80
2 -38 -151 -96 148 176 9
37 70 -66 -280 -157 131 128
22 93 181 -65 -270 -118 63
4 11 113 146 -41 -131 -33
-2 2 7 63 46 -15 -39
-14 -23 -6 15 14 10 -9
-10 -62 -58 72 153 50 -27
17 -67 -234 -178 128 218 65
70 84 -114 -393 -257 104 154
61 149 218 -96 -364 -202 37
29 66 184 192 -60 -190 -72
-4 32 49 106 79 -8 -44
-32 -19 13 45 48 32 19
-11 -29 -13 71 110 21 -17
-4 -35 -130 -81 130 150 31
20 45 -55 -238 -135 102 107
13 57 146 -50 -232 -119 45
10 7 76 120 -32 -117 -29
5 22 -4 28 30 -7 -24
-5 -4 0 7 7 13 13
-61 -46 -67 -35 -3 28 43
-41 -23 -24 -20 16 46 48
-5 12 16 26 75 73 45
23 58 100 159 146 78 46
42 86 129 164 137 76 41
44 80 90 93 84 76 44
38 52 43 52 63 56 38
48 36 11 4 -45 -73 -73
6 -5 -21 -71 -109 -93 -72
-8 -54 -119 -184 -163 -113 -87
-44 -117 -188 -208 -199 -151 -87
-38 -103 -184 -223 -208 -140 -69
-39 -51 -98 -157 -165 -98 -57
-70 -52 -40 -54 -78 -81 -69
-66 19 68 102 67 25 6
-48 49 120 101 57 52 45
7 63 79 53 67 87 72
6 30 38 64 72 78 85
7 28 15 20 39 72 84
-9 52 64 33 24 62 56
-63 6 60 65 39 12 -9
-76 -39 23 89 121 95 70
-108 -49 20 78 109 101 76
-139 -60 6 49 98 125 103
-144 -86 -36 19 74 122 107
-138 -94 -61 -11 49 93 77
-115 -80 -65 -30 22 73 57
-152 -134 -112 -75 -27 18 3
55 24 -8 -64 -118 -134 -76
54 63 49 -24 -111 -145 -81
47 87 83 -9 -99 -124 -63
40 77 75 3 -82 -86 -41
36 54 52 5 -44 -48 -23
49 65 56 29 2 18 35
30 41 49 51 41 64 82
69 37 2 -58 -109 -108 -16
81 91 69 -34 -141 -164 -58
96 149 130 -13 -154 -175 -75
102 140 121 -12 -159 -174 -89
110 128 100 -14 -127 -145 -90
121 133 95 6 -76 -70 -42
107 97 76 27 -30 -25 -16
-53 -44 -42 -44 -39 -14 -23
20 70 90 44 -15 -33 -28
85 260 349 235 44 -40 -48
92 328 475 362 117 -11 -22
11 183 318 276 110 15 -15
-69 4 87 121 77 40 3
-56 -46 8 32 47 53 8
73 51 35 27 20 22 5
15 -42 -82 -64 -21 -7 -3
-53 -142 -198 -188 -103 -41 -27
-104 -214 -273 -253 -167 -75 -27
-56 -170 -238 -220 -150 -85 -34
-23 -77 -132 -127 -93 -64 -39
-18 -31 -53 -85 -72 -49 -41
-17 16 37 38 16 5 18
-21 -30 -28 23 65 51 46
-19 -110 -156 -86 57 89 52
-4 -138 -211 -134 26 92 73
75 -38 -119 -72 23 64 60
109 85 34 28 35 33 35
80 92 82 39 19 11 17
17 40 24 -152 -62 64 11
-10 29 290 104 -299 -94 4
-24 -214 -28 527 133 -142 -8
60 -16 -398 -65 215 4 26
-15 156 50 -121 -19 -53 -12
-31 -52 26 64 91 -5 -38
1 -7 -59 -40 40 36 -8
20 50 50 -165 -122 25 -1
-36 20 376 217 -299 -136 -20
-78 -326 -56 686 279 -102 8
57 -107 -583 -139 273 59 66
39 186 -16 -237 -70 -61 9
26 -5 49 34 63 -18 -37
29 20 -45 -59 22 25 -9
14 12 -9 -120 -29 66 6
-22 8 212 77 -233 -35 0
-17 -171 -45 437 118 -83 19
41 15 -341 -101 146 6 51
-26 138 64 -128 -45 -49 20
1 -41 26 40 61 -9 -11
11 9 -47 -54 10 18 -2
70 52 -5 -57 -58 -33 -33
45 13 -42 -92 -86 -73 -68
7 -28 -61 -88 -84 -72 -68
-10 -27 -49 -55 -45 -37 -26
31 14 -2 -14 -4 4 19
62 44 15 2 11 12 13
61 51 20 5 10 24 17
14 38 38 38 56 70 53
27 38 36 30 49 48 31
19 21 28 30 35 34 9
3 18 19 32 40 30 11
31 34 35 35 39 29 10
41 33 19 14 17 -2 -35
14 13 -10 -27 -33 -42 -81
115 86 24 -27 -43 -37 -39
88 47 -16 -63 -66 -69 -72
41 -3 -37 -61 -64 -63 -77
24 -3 -36 -37 -27 -27 -36
65 30 3 -10 7 12 6
93 56 18 8 19 12 -4
69 52 12 -1 2 4 -21
22 -61 -64 -86 27 188 141
66 -76 -129 -83 -250 97 158
141 100 -348 -101 -251 -138 136
105 418 -73 -291 -152 -218 30
19 226 307 -87 -66 -117 -19
7 43 207 72 4 -42 -1
-62 6 107 98 62 18 -3
13 -29 40 13 8 50 -54
9 -95 10 191 -107 31 -21
15 -20 -305 240 69 -68 39
-52 216 -201 -129 166 -64 19
-69 9 87 -143 90 14 12
42 -74 -3 -81 -3 5 12
43 2 -12 -43 -10 -10 -41
-1 23 83 13 -44 -71 -169
-35 -7 167 294 -35 -8 -132
-116 -13 -43 463 214 -15 -33
-221 13 -91 122 312 27 16
-144 -205 -40 -45 175 68 27
41 -155 -133 -108 12 27 41
56 -12 -76 -84 -18 5 4
-167 -154 -56 12 39 46 10
-150 -1 118 119 108 74 19
-27 144 185 196 131 20 -37
71 164 176 108 -54 -152 -124
57 96 34 -145 -241 -188 -26
1 4 -88 -172 -141 -33 82
-27 -15 -58 -42 25 55 56
-102 -101 5 76 69 31 -28
-94 44 164 150 105 30 -37
43 200 223 200 86 -65 -110
128 192 175 53 -160 -260 -180
75 81 -9 -238 -351 -252 -20
11 -21 -132 -230 -172 -8 143
10 -9 -55 -25 73 130 137
-80 -72 12 41 25 13 -6
-74 36 108 66 34 5 -17
9 110 97 83 42 -28 -51
57 89 79 30 -81 -136 -92
25 38 -1 -135 -200 -143 11
7 -5 -66 -124 -93 -4 100
12 9 -25 3 73 93 98
78 52 12 24 15 -29 -81
37 13 -21 -18 -8 -45 -82
50 1 -48 -66 -47 -47 -79
59 41 -3 -45 -63 -48 -73
35 34 20 24 4 4 -10
15 24 -1 -8 17 31 27
13 24 1 -18 -7 15 22
-78 19 89 168 216 210 188
-96 14 84 141 192 182 165
-92 -15 45 91 136 142 123
-97 -24 24 49 63 78 48
-119 -62 -18 27 28 24 3
-141 -96 -88 -75 -43 -41 -52
-179 -140 -136 -141 -145 -140 -155
31 -66 -151 -160 -133 -81 -8
6 -70 -173 -209 -194 -165 -77
90 -7 -118 -181 -185 -160 -95
151 91 3 -89 -141 -108 -59
138 100 76 45 -8 -3 27
132 104 83 74 82 86 93
165 146 124 105 106 123 128
1 54 133 172 95 21 4
-48 -41 -136 -294 -272 -116 -28
11 -66 -129 36 245 191 86
37 150 371 340 78 -45 -29
-7 -45 -246 -456 -331 -105 -53
-27 -31 13 165 207 84 -7
-8 16 30 -4 -33 -11 17
-5 30 79 94 17 -40 -23
-63 -99 -238 -396 -347 -145 -26
38 -56 -59 201 410 291 149
80 225 529 524 173 -21 -3
-11 -65 -307 -564 -461 -182 -74
-43 -70 -42 123 181 67 -24
20 39 45 6 -21 18 29
-15 9 58 82 29 -30 -21
-29 -24 -99 -213 -206 -88 -15
36 -58 -111 66 224 154 92
56 108 318 327 87 -24 11
7 -26 -166 -319 -222 -39 -23
-20 -29 10 152 169 46 -30
-12 -10 -21 -60 -72 -23 -4
-2 51 -35 -114 63 42 -15
-9 116 30 -296 239 -2 -21
-49 167 74 -538 428 -81 -9
-72 169 59 -539 428 -78 -5
-54 138 -14 -309 230 1 -16
-9 85 -44 -101 86 41 -6
-2 32 -59 -51 48 32 6
3 62 -48 -128 49 30 1
-23 126 7 -350 266 -5 -19
-72 220 73 -617 528 -72 -26
-84 236 59 -610 525 -74 -25
-53 159 -26 -351 258 -12 -33
-11 89 -42 -98 80 23 -20
-7 42 -46 -39 27 8 -14
-2 24 -1 -34 36 -7 5
-37 12 65 -147 176 -69 7
-89 44 151 -305 361 -176 13
-94 59 160 -291 345 -192 11
-67 40 74 -129 154 -106 -2
-21 31 12 -12 41 -26 3
-4 31 -13 -11 17 -15 -2
-18 -12 7 43 -24 -96 -77
15 4 13 59 16 -72 -95
28 31 22 83 94 22 -12
23 49 50 95 117 60 29
-35 13 52 113 123 52 22
-74 -80 -76 -3 46 7 -18
-70 -99 -128 -100 -44 -31 -61
-10 -62 -87 -86 -166 -219 -162
50 -7 -40 -44 -127 -231 -226
98 70 41 50 6 -106 -140
110 135 135 148 111 0 -59
28 104 173 220 186 59 1
-54 -28 14 104 128 47 0
-76 -80 -72 -22 34 31 -14
-25 -54 -68 -58 -118 -155 -93
24 -20 -43 -35 -95 -171 -145
76 52 14 35 11 -72 -78
93 109 89 106 82 -10 -34
36 102 146 175 134 27 -11
-31 -2 30 84 93 16 -24
-58 -51 -50 -19 16 -2 -42
-16 3 -29 23 57 -27 -1
-5 -19 -120 156 64 -75 18
-10 -116 141 347 -181 -141 47
-25 38 337 -123 -418 43 66
2 107 31 -377 -31 211 -11
0 27 -94 -60 167 29 -16
-1 -3 -31 21 26 -8 -11
-16 26 11 62 71 -47 -10
13 11 -49 226 37 -139 5
39 -61 254 389 -306 -239 40
27 98 392 -235 -610 2 107
29 113 -26 -543 -115 269 57
8 9 -150 -130 188 86 19
12 -1 -43 9 44 17 8
-13 31 1 -10 21 -16 -3
4 14 -120 71 27 -40 12
9 -118 58 266 -124 -64 36
-25 -23 234 -94 -283 100 37
-19 37 16 -273 37 190 -37
-7 14 -56 -16 144 -3 -13
10 12 -13 8 -9 -14 9
29 -12 -36 -14 -18 -55 -99
13 -39 -32 48 66 -6 -88
12 -28 21 145 187 90 -54
-6 -47 26 153 196 106 -17
-8 -51 -23 46 72 28 -28
4 -17 -38 -11 -18 -20 -39
0 7 -6 4 -5 -8 -9
-140 -54 -6 50 67 49 30
-107 -23 62 138 158 97 50
-88 -1 116 222 260 171 71
-72 -12 104 200 244 180 87
-66 -18 58 117 137 103 51
-70 -17 16 53 40 32 -3
-96 -35 -12 6 -11 -18 -43
121 74 29 -19 -30 26 102
99 62 -36 -182 -230 -117 23
89 24 -134 -349 -410 -267 -62
81 -5 -161 -374 -418 -263 -53
83 31 -39 -178 -229 -122 23
65 33 19 -17 -66 -15 44
69 14 11 8 -11 17 46
7 -39 41 29 9 14 -15
-20 92 83 -186 -64 29 4
22 45 -361 -200 287 90 -7
-1 -148 -103 513 250 -168 -33
6 7 248 147 -341 -120 30
7 8 22 -157 -90 75 -31
-8 5 10 -1 23 -4 9
40 -23 16 -30 -22 16 -1
-24 63 -14 -287 -74 45 27
-20 -50 -493 -190 422 153 10
-34 -204 -65 736 395 -196 -65
18 34 347 253 -390 -210 7
13 17 31 -188 -164 53 -10
2 10 16 -18 -2 -3 19
22 -35 26 20 8 4 -1
-35 74 91 -134 -56 -3 5
-11 46 -288 -152 233 45 -6
-11 -124 -84 456 201 -157 -15
6 -20 173 107 -292 -72 46
7 -13 -1 -109 -41 86 -21
6 0 19 25 21 -24 -9
1 31 -6 27 33 13 -20
-57 12 -22 107 112 -54 21
-20 -5 -176 -203 289 108 -15
2 28 196 -420 -179 243 26
39 -157 182 154 -316 11 71
75 10 -153 116 -19 -75 22
9 61 16 12 5 -50 -30
6 25 -52 -28 11 39 28
-35 38 -48 47 71 -64 43
5 46 -168 -283 234 69 -40
1 112 340 -437 -274 189 -27
-12 -161 324 272 -349 -47 31
25 -49 -162 190 24 -79 14
-21 22 -27 13 34 -30 -6
10 23 -48 -68 -55 9 29
-18 62 26 60 -28 -127 19
-7 56 -27 -79 200 -51 -98
-39 41 327 -171 -82 136 -101
-25 -201 190 294 -142 38 12
27 -47 -202 110 64 1 29
-13 21 -37 -34 19 1 8
6 -82 -109 -108 -120 -138 -123
-26 -93 -96 -79 -101 -131 -122
-6 -72 -66 -47 -62 -93 -90
4 -48 -76 -59 -68 -79 -64
-4 -55 -79 -72 -71 -79 -53
6 -66 -83 -68 -62 -47 8
43 -6 -38 -20 -8 29 88
-24 -22 9 44 69 73 78
-26 -9 34 77 92 92 92
9 22 74 116 134 127 112
36 56 78 115 130 120 114
35 47 62 86 94 71 70
35 16 30 47 41 26 39
47 35 28 38 22 22 40
32 -14 -22 -19 -34 -57 -65
11 -15 -9 1 -26 -48 -59
28 -9 3 15 1 -24 -37
37 12 -3 12 9 -5 -14
31 6 -8 0 1 -18 -18
42 -6 -10 0 -8 -14 15
73 40 23 25 24 44 73
14 -10 -56 21 97 -31 -12
0 114 -184 33 186 -151 25
-44 252 -465 174 222 -290 103
-22 214 -495 311 98 -252 120
17 72 -255 227 12 -98 71
14 1 -75 66 19 -27 15
7 -7 -32 29 27 -32 4
18 -28 -79 31 118 -46 -11
-1 83 -252 75 268 -192 -1
-29 225 -566 306 366 -363 76
-3 180 -576 484 208 -346 91
24 31 -295 323 39 -176 40
16 -22 -71 103 19 -51 3
2 -17 -23 46 26 -30 6
3 -7 -25 18 61 -32 -9
-38 83 -110 29 131 -131 12
-82 218 -315 194 173 -244 86
-68 198 -322 309 38 -216 81
-28 76 -167 177 -53 -84 36
-6 9 -35 47 -14 -23 6
-5 2 -10 40 12 -24 9
11 -46 -83 -2 92 86 88
60 -39 -182 -112 94 109 79
97 8 -223 -240 60 160 68
73 50 -158 -254 -4 181 78
41 46 -88 -197 -47 138 78
25 48 -21 -115 -53 70 68
18 28 -12 -63 -49 11 41
5 -50 -91 -14 59 44 60
80 -15 -179 -118 76 74 50
129 60 -202 -244 42 127 37
103 113 -112 -250 -26 145 34
55 96 -37 -182 -63 101 30
19 78 24 -84 -52 44 32
3 39 19 -30 -41 -1 21
-3 -8 -15 11 6 -18 12
34 24 -55 -49 16 -15 -8
54 76 -52 -118 10 18 -37
31 95 -3 -114 -15 48 -46
3 65 24 -69 -26 44 -29
-9 54 47 -19 -24 13 -9
-2 32 32 3 -24 -10 8
78 140 107 -16 -148 -186 -118
75 166 140 -14 -193 -240 -125
111 198 170 -7 -198 -242 -90
131 194 142 -30 -197 -213 -85
152 176 107 -48 -177 -175 -83
170 172 102 -10 -104 -96 -32
143 149 96 31 -37 -23 3
-5 57 63 19 -17 -25 20
-18 63 79 16 -65 -81 1
4 76 94 19 -75 -93 13
13 67 61 -5 -87 -89 -10
29 40 28 -33 -89 -79 -34
49 34 12 -23 -57 -38 -18
25 23 -3 -18 -38 -25 -32
-118 -79 -69 -43 -13 16 38
-118 -72 -57 -24 -4 22 60
-97 -59 -33 8 32 48 102
-88 -57 -29 25 53 73 104
-75 -64 -35 9 46 78 81
-47 -43 -19 29 62 96 95
-39 -26 -3 49 72 104 89
-32 -18 14 31 10 -11 -28
10 16 5 -19 -47 -29 -18
27 17 1 -23 -19 1 -6
9 -7 -27 -24 -3 -4 -32
-3 -2 1 1 -4 -17 -46
27 45 58 67 26 3 -28
21 59 45 35 20 -1 -26
-102 -133 -130 -133 -138 -122 -77
-50 -76 -108 -145 -165 -114 -51
-9 -31 -47 -64 -54 -23 7
-10 -18 -14 7 36 32 24
-10 12 47 62 66 51 31
32 73 122 148 125 105 74
43 100 131 149 145 123 102
-144 -203 -216 -217 -221 -190 -123
-71 -121 -161 -200 -225 -168 -78
1 -51 -78 -104 -110 -75 -26
14 -18 -16 -7 -1 -11 -4
36 43 71 86 69 40 25
108 133 180 217 168 118 89
155 199 228 244 217 168 151
5 15 26 39 43 42 6
9 15 38 64 83 66 25
28 43 68 108 131 116 75
43 60 85 122 142 132 85
23 39 49 75 97 71 5
2 12 10 14 15 -20 -72
17 6 22 21 -8 -44 -59
12 11 16 20 15 4 -38
-2 -9 4 24 34 4 -43
7 8 23 44 48 24 -11
10 9 26 41 36 19 -17
-20 -16 -11 1 -3 -44 -96
-37 -29 -35 -38 -63 -112 -140
-14 -15 7 6 -38 -81 -73
15 2 8 4 -7 -13 -52
-12 -37 -28 -23 -23 -52 -89
-8 -28 -31 -37 -53 -82 -99
-2 -30 -37 -51 -79 -103 -110
-10 -29 -45 -63 -86 -126 -150
-6 -18 -41 -65 -98 -148 -163
36 14 21 10 -45 -92 -79
8 52 55 9 -123 15 28
62 -81 140 -14 -273 143 21
111 -218 340 -177 -350 270 -18
56 -149 311 -319 -196 265 -21
13 6 116 -234 -6 134 6
10 27 22 -100 16 45 21
-3 0 2 -59 -18 44 21
-37 8 55 53 -118 6 17
-7 -153 210 72 -285 140 3
36 -287 523 -52 -368 269 -59
-10 -182 477 -224 -204 241 -95
-25 0 191 -192 -11 90 -61
-4 26 58 -74 13 13 -20
0 12 24 -44 -24 21 -7
-21 -3 6 55 -32 16 -14
10 -149 82 113 -100 102 -64
50 -286 312 64 -114 170 -137
7 -219 292 -50 -3 127 -145
-21 -59 106 -55 73 12 -92
-14 -18 32 -8 37 -15 -26
-6 5 32 -12 -12 10 -10
57 43 12 -52 -79 -67 -19
-61 -70 -25 -7 9 63 91
-174 -173 -76 8 93 156 170
-208 -222 -132 -1 107 185 210
-146 -145 -76 10 85 145 157
-55 -21 29 33 25 36 43
30 74 76 32 -41 -77 -55
-7 -1 -16 -54 -56 -31 20
-138 -129 -54 3 45 95 122
-269 -235 -85 52 151 191 199
-291 -276 -128 66 172 226 245
-200 -178 -70 52 134 184 186
-94 -32 43 56 46 54 55
10 71 87 36 -42 -81 -56
108 95 50 -23 -50 -57 -18
4 -7 4 -7 -13 -3 19
-92 -80 -16 17 36 37 51
-119 -117 -54 19 38 56 75
-68 -72 -25 13 26 40 49
-16 12 44 20 -22 -27 -25
52 88 70 14 -56 -96 -72
-8 36 104 114 71 27 8
-25 4 90 170 155 68 -2
-39 -144 -349 -428 -318 -117 -14
15 -22 -148 -270 -245 -127 -53
16 103 254 349 266 121 23
31 53 81 109 118 69 22
7 -8 -50 -65 -64 -26 0
18 83 169 192 134 67 24
-46 -7 98 183 158 54 -13
-75 -207 -444 -545 -430 -202 -62
5 -41 -195 -335 -314 -186 -94
28 128 298 415 316 149 24
42 65 111 169 179 113 43
17 1 -38 -48 -36 7 21
4 24 55 66 36 9 14
-8 29 112 178 141 49 1
-14 -52 -168 -207 -149 -42 3
7 -3 -78 -148 -133 -72 -22
-17 16 98 192 154 66 9
-4 -15 -20 -6 22 6 -4
-1 -4 -31 -51 -49 -19 7
27 6 -43 -129 -105 -28 39
112 69 -96 -195 -130 25 107
124 63 -81 -145 -76 39 87
28 -13 -22 -17 0 4 -1
-96 -83 24 124 95 -12 -90
-134 -71 92 197 138 -14 -120
-58 12 114 181 108 0 -54
25 0 -53 -146 -126 -37 45
114 62 -116 -230 -158 20 112
130 57 -102 -179 -98 37 94
33 -16 -30 -26 0 10 8
-89 -80 32 135 110 -1 -80
-121 -63 104 215 157 1 -109
-44 16 112 184 114 10 -47
8 8 -10 -65 -50 -12 25
61 51 -53 -123 -76 25 67
84 53 -44 -88 -40 29 58
28 -3 -11 -7 -1 -7 -7
-58 -58 8 74 54 -12 -61
-92 -60 51 120 80 -13 -78
-52 -10 46 101 53 -11 -33
39 77 133 167 122 23 -88
84 120 173 198 74 -85 -145
99 113 132 66 -116 -164 -126
69 52 8 -87 -153 -128 -96
48 -3 -53 -144 -161 -120 -46
40 2 -61 -120 -117 -20 42
27 -4 -51 -43 -7 37 72
-53 12 91 156 182 178 141
-39 18 110 193 177 113 97
-59 -3 82 115 60 62 77
-83 -37 20 41 58 59 14
-89 -42 15 3 -7 -46 -64
-106 -52 -42 -75 -103 -89 -101
-147 -117 -120 -110 -119 -141 -161
37 -51 -186 -272 -259 -183 -79
7 -123 -250 -272 -237 -151 -35
-16 -131 -212 -198 -133 3 79
-20 -75 -85 -9 116 167 120
20 15 71 133 186 139 81
77 91 96 121 139 132 98
143 138 122 143 151 133 111
-15 28 95 56 66 81 24
40 119 82 30 108 43 -38
100 141 71 133 61 -122 -101
125 147 106 35 -161 -151 -73
140 97 -6 -109 -138 -56 -78
89 -4 -61 -59 -86 -75 -59
27 -42 -54 -81 -110 -49 9
81 76 50 -51 -20 33 -1
60 65 -63 -109 59 34 -36
41 0 -103 53 82 -86 -66
18 -8 -12 34 -105 -94 -26
35 -17 -50 -53 -58 0 -52
13 -61 -50 12 -18 -49 -64
-8 -48 -4 -6 -53 -31 12
-59 -50 -58 -127 -63 20 20
-72 -43 -140 -145 57 79 46
-98 -114 -170 60 157 47 65
-107 -92 -22 132 69 82 107
-60 -45 22 108 114 135 37
-40 -42 47 147 106 39 -17
-38 -13 90 103 35 22 20
19 2 -15 -10 7 11 25
30 147 240 245 158 83 58
-37 -10 56 125 143 98 61
-68 -221 -401 -397 -219 -57 6
-29 -33 -122 -225 -264 -176 -69
2 61 134 171 110 17 -36
51 70 55 64 66 57 18
37 19 -4 -4 6 19 29
54 174 260 259 158 79 47
-39 -22 45 110 111 66 29
-85 -255 -452 -455 -279 -108 -37
-24 -15 -106 -221 -277 -194 -97
7 89 183 235 163 43 -35
35 65 71 94 98 80 32
8 -39 -66 -54 -30 -11 3
12 67 116 102 36 3 -5
-17 0 57 79 52 18 -5
-11 -91 -185 -194 -102 -17 2
4 26 4 -65 -103 -65 -19
-4 21 87 131 110 37 -8
7 15 9 8 24 38 10
110 8 -135 -154 -91 -61 -35
96 5 -171 -223 -174 -131 -82
110 77 -114 -253 -239 -192 -132
154 131 28 -183 -231 -198 -146
186 178 171 28 -92 -110 -92
144 179 193 174 105 52 39
91 155 196 185 143 123 100
-9 25 27 101 188 194 175
-44 9 -12 49 138 151 144
-76 14 -24 -20 65 88 84
-70 -37 -16 -65 -18 11 -1
-27 -52 1 -28 -39 -32 -68
-33 -47 -52 -30 -17 -22 -58
-66 -54 -71 -95 -96 -77 -105
3 -7 -24 20 41 9 -15
-28 -7 -21 44 82 36 5
-68 -10 -17 28 82 55 18
-54 -54 -16 -10 39 36 8
-13 -70 -29 -19 6 14 3
5 -39 -71 -36 14 33 32
24 9 -24 -40 -14 30 43
-6 -57 -6 9 -23 32 15
-50 -9 183 -58 -89 77 -8
-21 160 -43 -422 77 152 -8
18 -8 -406 -11 490 9 -56
2 -62 -17 403 94 -211 -30
6 9 95 78 -178 -41 -11
-11 1 21 -25 -37 1 -14
42 13 66 21 -58 7 8
19 82 229 -145 -190 30 -19
45 202 -139 -620 13 163 14
29 -76 -578 -72 598 73 -15
-22 -144 -83 489 182 -199 1
1 -21 82 113 -177 -36 17
1 1 26 -2 -22 14 4
3 -45 -13 22 -12 4 2
-31 -8 196 4 -79 17 -28
-22 168 50 -341 5 53 -18
24 32 -313 -42 337 -44 -18
8 -40 -45 283 14 -158 40
10 -9 28 7 -154 42 31
0 -8 6 -4 15 39 -9
67 53 18 12 23 6 -29
58 37 7 12 26 13 -13
44 35 12 1 4 4 -5
66 59 20 6 -8 -15 -10
74 66 43 19 8 7 7
80 62 47 35 35 44 35
65 74 51 42 62 67 54
25 19 -5 -3 12 0 -18
19 6 -15 -9 5 -7 -17
-3 4 -10 -20 -24 -21 -21
13 23 -3 -14 -32 -40 -26
20 24 19 3 -11 -10 -4
26 18 17 13 20 33 30
13 28 17 15 41 52 39
70 27 -35 -63 -55 -49 -33
43 -12 -70 -80 -71 -70 -54
10 -32 -74 -97 -102 -90 -62
17 -19 -70 -92 -108 -105 -62
24 -12 -40 -66 -74 -60 -31
41 -4 -27 -34 -23 0 16
47 27 -8 -15 15 38 44
0 80 18 -106 -41 16 -8
-29 170 96 -236 -106 116 13
-66 207 199 -323 -232 207 46
-72 148 218 -245 -287 170 85
-42 77 123 -110 -206 62 58
-8 52 53 -20 -72 3 17
-1 17 15 -7 -12 -16 -16
39 102 -9 -180 -80 40 48
30 226 76 -353 -174 162 95
-2 284 201 -473 -349 249 137
-8 234 241 -373 -412 191 160
4 128 135 -189 -290 63 103
9 72 49 -58 -100 9 37
3 16 4 -28 -21 -16 -6
2 37 -6 -86 -35 19 24
-22 87 46 -177 -63 111 26
-52 112 116 -253 -158 190 45
-47 71 124 -194 -196 177 75
-23 25 47 -88 -127 89 64
-8 24 0 -18 -30 26 24
-1 11 -12 -7 4 -1 0
-208 -160 -65 72 187 224 216
-192 -164 -63 69 172 215 212
-182 -168 -81 58 159 183 156
-170 -147 -99 37 153 152 113
-151 -138 -90 13 127 134 108
-148 -133 -83 -15 64 75 73
-135 -129 -90 -22 24 18 11
140 14 -68 -109 -147 -171 -141
115 -13 -66 -103 -163 -185 -143
123 1 -49 -76 -139 -170 -146
139 38 -35 -50 -65 -100 -85
147 47 -9 -26 -8 -22 1
155 68 29 7 24 28 70
217 126 84 84 85 95 136
18 55 100 131 117 86 63
-13 17 82 110 78 38 25
-2 18 71 110 75 20 -21
0 21 36 76 69 2 -50
-6 -2 9 24 29 -14 -69
-34 -31 -30 -45 -54 -86 -107
-66 -78 -95 -102 -127 -164 -185
28 103 126 145 128 103 84
19 92 118 108 80 41 30
1 17 24 11 17 -1 -21
-4 -2 -22 -28 2 4 -12
0 -9 -34 -45 -14 -1 -17
-21 -47 -82 -114 -87 -47 -20
-40 -81 -142 -156 -120 -45 -4
54 145 186 211 194 170 138
64 139 180 186 154 106 79
42 62 91 88 82 50 6
17 21 24 28 41 15 -24
-8 -24 -47 -60 -51 -41 -67
-46 -102 -165 -212 -190 -129 -101
-82 -161 -252 -290 -253 -149 -94
51 123 147 164 143 130 118
37 86 116 118 91 49 40
13 19 41 36 33 0 -24
0 6 4 6 25 8 -23
-8 -9 -30 -45 -28 -19 -38
-9 -57 -115 -158 -130 -77 -46
-34 -107 -200 -240 -190 -93 -19
-8 19 22 19 24 43 50
22 43 44 35 24 42 51
19 41 45 49 55 74 56
-10 20 35 70 157 183 97
-26 2 21 49 121 146 80
-31 -12 -5 3 19 33 17
-11 -10 -21 -24 -22 -8 -8
-9 8 -3 -24 -22 12 30
13 21 4 -26 -41 -6 11
12 17 -1 -9 7 42 18
-10 3 -2 31 149 193 81
-15 0 3 24 115 154 69
-10 9 0 -6 9 25 5
19 26 10 -2 -1 10 11
-27 -17 -29 -57 -59 -22 -5
-13 -17 -40 -76 -89 -47 -37
-13 -26 -61 -72 -39 4 -44
-25 -34 -66 -37 92 139 4
-17 -24 -47 -44 42 75 -27
0 2 -29 -54 -52 -47 -77
37 38 10 -19 -27 -27 -39
-22 -22 -28 -5 -34 -97 -87
10 -1 -14 9 34 -47 -106
19 33 36 38 77 51 -40
-8 19 60 68 68 52 -3
-43 -30 6 46 60 43 5
-27 -68 -44 -12 23 29 15
49 -3 -25 -18 -1 9 -23
-11 12 26 30 -36 -129 -138
11 37 57 84 90 -31 -141
5 51 89 122 174 128 -20
-67 -25 49 101 139 134 48
-116 -107 -56 9 68 84 47
-72 -140 -130 -95 -29 25 35
39 -56 -106 -109 -77 -31 -36
-29 15 46 69 24 -71 -104
-29 26 67 123 154 44 -76
-46 33 92 150 226 189 36
-118 -43 54 114 162 165 79
-166 -122 -59 12 70 92 73
-139 -169 -144 -98 -27 34 59
-62 -131 -161 -152 -99 -34 -24
-39 -18 17 71 100 104 86
-10 -17 27 71 103 91 73
3 -5 14 42 80 82 22
0 -6 7 31 49 56 -11
6 -14 -2 14 17 14 -38
30 5 -11 9 11 -7 -30
50 10 -12 -9 -28 -56 -63
102 75 42 -2 -65 -86 -65
89 31 2 -74 -163 -189 -142
70 14 -43 -144 -209 -205 -192
33 -5 -42 -111 -157 -148 -161
23 -12 -23 -60 -94 -104 -123
41 0 -29 -40 -67 -88 -83
58 6 -25 -37 -69 -93 -64
-115 -25 48 99 93 99 100
-73 -15 66 93 75 72 96
-60 10 60 61 63 90 80
-80 17 94 109 110 135 102
-99 -14 85 127 128 129 81
-95 -39 28 86 98 86 63
-115 -79 -38 9 15 0 3
-48 -89 -101 -67 -4 14 17
-71 -109 -105 -73 -8 15 2
-32 -61 -40 -11 27 20 14
0 -16 -5 9 31 16 29
4 -21 -6 -1 24 20 36
12 -23 -10 8 24 34 67
46 17 31 44 50 57 94
-13 -73 -109 -101 -54 -38 -20
-41 -101 -114 -105 -52 -24 -32
-8 -59 -61 -49 -11 -12 -17
17 -20 -32 -33 -7 -16 4
16 -30 -29 -34 -14 -16 11
20 -32 -32 -20 -14 -7 37
52 11 11 16 17 24 68
-40 -46 -46 -36 -7 -2 -2
-51 -66 -53 -44 -2 18 -7
-25 -43 -20 1 41 36 13
-8 -11 4 19 50 37 31
1 -15 8 18 38 29 30
6 -17 -2 18 25 22 40
35 13 25 30 34 31 52
-62 -18 -44 -20 36 56 72
-70 -34 -45 -31 27 58 75
-58 -32 -55 -54 -11 25 57
-24 -8 -28 -58 -36 -3 10
11 19 15 -11 -10 7 9
26 37 36 13 10 20 22
13 53 56 33 13 15 1
147 57 -92 -165 -152 -127 -101
109 24 -96 -176 -165 -139 -103
117 38 -80 -171 -185 -176 -127
157 90 -11 -121 -166 -166 -150
181 126 75 -16 -71 -83 -82
196 160 124 59 20 13 16
192 194 172 121 87 93 87
27 76 67 84 113 113 93
-10 41 63 80 124 119 95
-37 19 38 64 97 88 72
-47 -4 19 17 37 31 -7
-68 -46 -16 -14 -8 -2 -37
-97 -75 -56 -63 -49 -39 -61
-132 -93 -93 -111 -105 -87 -108
143 92 -96 -136 -87 -92 22
80 -108 -177 -45 -163 -61 79
-11 -158 -118 -257 -247 157 129
-83 -203 -260 -236 185 305 105
-112 -140 -16 157 305 144 65
-55 25 116 125 159 97 14
-22 49 91 128 147 24 -58
-19 3 -84 -17 24 -40 16
-13 -81 10 200 -44 -49 32
-1 -6 168 -35 -230 70 13
-4 -27 -60 -172 72 143 -24
-30 -28 41 66 96 -23 3
-11 46 55 -59 -39 7 16
-17 13 -18 -34 38 9 -28
-72 8 -12 81 136 38 10
-38 -8 134 354 111 -16 -41
31 114 360 223 -88 -30 -147
92 141 155 -36 -53 -128 -204
76 78 78 -66 -188 -247 -79
53 39 -45 -235 -231 -82 40
11 -31 -107 -159 -58 12 57
-15 -21 -56 -26 24 9 2
30 90 230 283 115 -6 6
-52 -71 -250 -470 -419 -154 -40
-29 -40 -55 118 268 173 53
66 153 301 293 103 -13 38
-28 -66 -152 -273 -199 -53 -9
-2 10 14 50 61 26 6
11 -2 -36 0 37 21 13
23 73 211 248 63 -49 -3
-83 -147 -379 -616 -521 -199 -55
-29 -53 -37 219 406 243 68
100 216 433 475 213 19 54
-26 -65 -161 -303 -255 -92 -16
-11 -11 -17 8 18 -3 -5
-2 -20 -81 -78 -28 -11 2
19 49 169 234 99 18 29
-37 -43 -151 -310 -267 -68 -23
-11 -29 -27 133 251 128 20
48 86 206 210 29 -56 13
-23 -70 -137 -218 -147 -16 4
-2 8 18 47 51 22 5
-20 -17 3 106 45 -12 -10
18 -73 206 191 -168 -40 -5
-21 99 380 -298 -308 126 -7
17 256 -58 -546 149 149 -58
64 88 -269 -64 292 -104 -7
26 -30 -99 99 -4 -76 26
-14 -43 -26 22 -5 24 6
-8 10 25 96 -4 -41 -3
34 -51 242 141 -283 -75 17
-25 111 371 -460 -418 179 55
-13 240 -170 -708 203 277 6
26 43 -367 -73 432 -14 30
14 -37 -103 156 66 -45 35
11 -16 -6 51 18 27 -4
-3 -7 -59 18 21 -2 -10
32 -116 66 144 -102 6 11
-53 -33 261 -182 -151 150 -20
-70 137 -19 -337 236 127 -76
-6 62 -148 51 260 -122 -12
11 -1 -28 100 -42 -64 12
6 -19 -13 5 -15 15 -24
58 80 89 -120 -156 -40 -20
47 29 -199 -279 37 82 13
-11 -112 -180 127 190 -47 -17
-17 -37 11 -7 -148 -38 65
-16 -48 -100 -90 75 164 62
-28 -41 30 163 158 23 -4
8 28 91 105 30 -10 -3
-40 -5 35 -104 -62 76 49
-23 5 -153 -123 245 203 25
-7 -28 13 412 380 -51 -110
58 103 189 114 -199 -197 -83
55 21 -85 -174 -90 9 -44
-10 -55 -35 46 24 -73 -56
-18 -27 2 -9 -79 -74 -33
-65 -36 37 -61 -51 34 5
-43 16 -76 -78 177 113 -23
-16 -6 19 319 272 -84 -118
52 89 143 70 -182 -167 -71
66 35 -68 -161 -82 11 -9
24 -34 -35 6 3 -36 29
19 -25 -7 -16 -44 6 72
-46 -33 -49 -63 -62 -69 -61
-21 -18 -41 -56 -43 -33 -28
-20 -41 -53 -69 -49 -11 0
-24 -47 -59 -71 -49 7 6
-11 -28 -43 -42 7 61 33
11 -1 -8 5 55 88 46
32 31 11 19 57 81 56
-83 -43 -32 -25 -7 -12 -17
-50 -15 -13 -7 19 28 18
-38 -23 -10 -10 10 42 40
-29 -16 -7 -10 4 50 39
-7 8 8 10 46 92 55
19 27 29 41 84 109 61
42 51 36 43 75 91 59
-74 -33 -22 -14 4 -9 -29
-45 -9 -4 3 26 24 3
-32 -16 -1 -1 8 24 15
-24 -6 1 -7 -7 24 6
-9 13 11 5 30 64 21
6 21 25 28 58 74 23
13 28 16 16 42 52 23
-51 -41 -26 1 4 10 0
-17 -18 -14 12 30 37 28
-8 -8 -7 22 43 52 31
-1 1 8 43 60 55 38
21 30 55 104 104 70 47
58 69 78 120 109 65 47
78 89 80 86 69 43 32
36 5 -22 -34 -56 -64 -77
48 0 -44 -61 -70 -77 -84
29 -19 -70 -82 -84 -85 -100
8 -34 -75 -71 -74 -86 -99
2 -27 -32 5 -8 -61 -86
12 -6 -11 29 12 -51 -68
25 14 0 3 -16 -49 -53
34 46 52 66 60 58 33
55 54 49 58 66 65 46
41 45 31 46 56 57 32
14 25 18 40 44 34 17
-13 1 17 63 60 23 6
-38 -24 -14 31 33 -6 -6
-55 -44 -45 -29 -24 -30 -23
1 -13 21 52 61 -9 -27
7 -44 23 -8 -122 39 46
27 -62 -67 331 -19 -209 29
0 39 -340 49 454 -35 -97
-24 125 -79 -392 98 176 3
9 12 134 -77 -134 24 10
9 1 26 24 -50 -7 -15
3 -35 7 27 27 -19 10
35 -29 43 -10 -199 -31 25
54 -45 -31 454 10 -306 -55
0 33 -389 120 615 -20 -168
-34 121 -134 -457 162 245 1
9 10 126 -128 -165 46 21
8 -1 31 11 -51 17 8
0 -22 -19 -1 34 5 13
25 3 4 -71 -153 25 31
28 18 -7 289 -55 -226 -8
-40 77 -209 103 413 -63 -126
-75 85 -4 -279 108 151 -13
-10 -42 108 -31 -99 37 28
0 -23 -21 -7 -34 25 26
51 48 48 33 13 -15 -41
22 36 28 -5 -41 -66 -58
19 15 10 -16 -29 -65 -59
32 9 11 -10 -21 -62 -80
29 0 -15 -42 -53 -76 -96
13 -19 -42 -51 -47 -68 -97
-7 -30 -38 -34 -48 -69 -64
-29 -6 28 63 80 60 19
-32 21 54 65 59 35 24
-1 39 74 84 85 47 25
35 56 97 102 89 27 -30
34 43 58 35 6 -46 -107
11 6 -4 -23 -45 -96 -166
-17 -28 -36 -49 -93 -145 -170
-34 -24 -8 12 17 9 -15
-42 -8 13 16 9 4 13
-17 10 37 47 59 46 46
15 35 75 94 102 67 32
17 29 56 63 61 28 -20
10 18 28 36 35 0 -67
4 12 24 34 9 -39 -73
-35 -14 -44 -83 -7 60 28
27 -9 -8 198 252 75 -27
47 101 313 205 -193 -235 -86
63 117 -105 -455 -302 33 29
-1 -159 -299 -44 275 116 -3
-44 -42 109 183 -9 -74 22
-6 34 31 -41 -45 27 10
-12 13 -33 -82 -7 73 41
54 19 8 226 267 61 -43
54 114 324 181 -271 -312 -114
41 58 -205 -567 -373 26 48
-24 -224 -365 -29 352 176 32
-42 -39 150 261 49 -55 45
13 54 54 -25 -34 28 18
-4 20 -45 -116 -65 19 9
29 -36 -112 67 163 66 -13
-17 -17 167 185 -84 -119 -32
-2 64 -32 -231 -109 89 25
-1 -96 -149 95 265 51 -43
-24 -7 133 156 -67 -110 3
-2 27 19 -64 -60 13 3
165 202 136 2 -32 13 37
171 58 -148 -231 -192 -99 -26
39 -166 -302 -275 -162 -32 38
-70 -172 -204 -122 27 110 131
-20 -58 -41 28 96 140 148
27 4 16 70 111 153 113
9 -18 16 86 110 105 28
126 191 149 35 3 40 59
152 59 -130 -208 -172 -81 -10
9 -178 -292 -248 -135 -11 49
-100 -187 -184 -75 57 118 131
-34 -60 -11 66 100 116 114
29 10 28 73 85 114 62
14 -23 -2 55 60 44 -40
57 110 119 61 39 39 17
82 53 -36 -71 -68 -55 -57
25 -63 -113 -90 -62 -38 -35
-29 -64 -67 -25 25 29 15
15 -3 12 27 13 15 10
43 14 3 9 8 34 3
29 -18 -28 7 22 26 -29
-58 -61 -67 -48 0 -12 -42
-22 -52 -51 7 70 43 0
4 -38 -48 31 77 60 45
-4 -21 -31 15 48 54 36
-9 -21 -33 -13 29 21 8
-9 -22 -10 -4 19 27 20
-14 -19 13 8 2 13 33
86 1 -93 -138 -123 -141 -160
95 -24 -131 -153 -128 -159 -181
104 -28 -155 -168 -175 -193 -164
69 -11 -118 -163 -191 -184 -149
49 -11 -81 -121 -125 -144 -123
40 -4 -15 -45 -51 -52 -50
42 16 37 5 -12 -2 20
-15 18 39 95 160 146 95
20 33 50 118 186 160 105
39 43 46 113 143 128 119
13 56 73 109 113 115 101
-12 43 65 93 113 90 66
-42 12 62 73 83 80 52
-75 -26 38 34 26 33 39
50 20 -14 -66 -127 -159 -167
66 35 2 -67 -137 -163 -144
59 32 -32 -96 -123 -132 -127
43 8 -23 -76 -97 -89 -98
23 -16 -21 -35 -59 -58 -40
34 4 -11 -19 -21 -23 24
13 21 14 3 19 46 77
-73 2 65 105 133 136 119
-35 38 115 154 182 175 151
-28 47 98 142 199 187 131
-29 22 90 125 159 143 71
-35 -5 52 90 99 72 25
-31 -12 12 27 35 4 -21
-69 -25 -10 -20 -16 -34 -60
-24 -81 -113 -79 -12 24 10
-46 -111 -119 -61 40 91 55
-41 -111 -135 -63 52 81 29
-6 -76 -96 -63 -1 16 -28
20 -35 -49 -43 -34 -18 -32
41 7 -15 -19 -21 -26 -9
19 19 22 14 20 14 19
64 47 45 43 50 50 68
33 19 44 54 36 22 22
29 35 35 2 -21 -34 -23
39 33 -8 -61 -72 -84 -59
28 21 -40 -80 -104 -109 -57
23 -6 -33 -49 -74 -56 -21
39 -1 -10 -15 -29 -23 -14
68 44 39 29 31 27 58
31 1 21 23 -5 -19 1
6 7 6 -39 -66 -77 -52
15 17 -13 -68 -79 -95 -65
22 32 -19 -58 -84 -86 -25
22 15 1 -6 -34 -19 27
52 29 40 50 27 28 49
13 -22 -31 -52 -48 -50 -11
-8 -51 -39 -34 -47 -56 -29
-24 -38 -35 -43 -50 -59 -45
-12 -19 -23 -38 -36 -57 -53
-1 2 -22 -31 -44 -55 -19
-9 -20 -16 -9 -31 -25 12
22 -10 -2 7 -5 -9 18
76 131 128 80 85 120 99
60 142 211 225 213 218 192
27 97 176 216 209 189 186
-35 13 54 63 60 57 69
-105 -124 -144 -173 -176 -111 -15
-140 -178 -223 -258 -263 -177 -95
-148 -153 -119 -112 -146 -170 -163
33 36 7 -56 -48 3 7
28 52 73 62 52 79 80
10 32 67 79 69 66 85
-13 7 27 23 4 -2 22
-47 -58 -74 -102 -118 -73 11
-60 -78 -100 -112 -126 -70 -3
-49 -34 24 53 19 -14 -4
-82 -103 -136 -181 -160 -104 -63
-48 -69 -64 -83 -90 -57 -18
-10 -32 -27 -39 -55 -48 -7
30 33 39 16 -23 -40 -20
42 41 47 24 -15 0 45
55 45 56 50 29 55 86
72 88 170 195 164 112 94
6 -15 -54 -89 -93 -90 -65
2 -38 -73 -103 -109 -110 -74
-23 -58 -72 -78 -103 -107 -68
-31 -38 22 85 24 -47 -41
-3 -12 67 155 73 -19 -21
14 -2 15 41 9 -25 7
17 7 5 0 2 11 38
-10 10 7 0 8 15 25
9 10 4 -3 7 7 25
-5 -5 -3 2 -5 -2 22
-14 2 62 128 85 29 23
3 11 85 173 104 25 13
8 6 25 49 22 -10 8
1 5 2 -8 -9 -4 10
32 57 56 41 36 32 29
41 53 56 49 47 38 42
9 23 36 43 32 26 36
-19 3 68 137 90 33 18
-27 -20 55 138 73 0 -9
-31 -40 -29 -6 -24 -44 -14
-30 -36 -45 -52 -45 -30 1
